<?xml version="1.0"?>
<opencv_storage>
<stage17>
  <maxWeakCount>13</maxWeakCount>
  <stageThreshold>-1.6864597797393799e+00</stageThreshold>
  <weakClassifiers>
    <_>
      <internalNodes>
        0 -1 425838 9.0987794101238251e-03</internalNodes>
      <leafValues>
        -4.8115298151969910e-01 2.6057907938957214e-01</leafValues></_>
    <_>
      <internalNodes>
        0 -1 335092 -3.0492292717099190e-03</internalNodes>
      <leafValues>
        -7.2331804037094116e-01 1.8789638578891754e-01</leafValues></_>
    <_>
      <internalNodes>
        0 -1 428904 3.5224113613367081e-02</internalNodes>
      <leafValues>
        1.8680943548679352e-01 -9.1967242956161499e-01</leafValues></_>
    <_>
      <internalNodes>
        0 -1 2157 4.6656210906803608e-03</internalNodes>
      <leafValues>
        -5.1040107011795044e-01 2.5734749436378479e-01</leafValues></_>
    <_>
      <internalNodes>
        0 -1 135168 8.5793845355510712e-03</internalNodes>
      <leafValues>
        2.6721540093421936e-01 -6.1296868324279785e-01</leafValues></_>
    <_>
      <internalNodes>
        0 -1 414220 1.1037446092814207e-03</internalNodes>
      <leafValues>
        -2.2921846807003021e-01 7.7966260910034180e-01</leafValues></_>
    <_>
      <internalNodes>
        0 -1 384900 1.3990064617246389e-03</internalNodes>
      <leafValues>
        -2.3668813705444336e-01 6.1951607465744019e-01</leafValues></_>
    <_>
      <internalNodes>
        0 -1 320898 1.9135754555463791e-03</internalNodes>
      <leafValues>
        2.8909814357757568e-01 -5.9817183017730713e-01</leafValues></_>
    <_>
      <internalNodes>
        0 -1 350113 -1.1881763930432498e-04</internalNodes>
      <leafValues>
        -5.9861683845520020e-01 2.7474367618560791e-01</leafValues></_>
    <_>
      <internalNodes>
        0 -1 311022 1.1656462447717786e-05</internalNodes>
      <leafValues>
        -3.7316811084747314e-01 4.9871173501014709e-01</leafValues></_>
    <_>
      <internalNodes>
        0 -1 293105 9.9876464810222387e-04</internalNodes>
      <leafValues>
        -2.8711315989494324e-01 6.0252046585083008e-01</leafValues></_>
    <_>
      <internalNodes>
        0 -1 293336 9.9770743399858475e-03</internalNodes>
      <leafValues>
        -2.1181079745292664e-01 7.3918712139129639e-01</leafValues></_>
    <_>
      <internalNodes>
        0 -1 296742 -7.4710613116621971e-03</internalNodes>
      <leafValues>
        3.1899467110633850e-01 -5.4064029455184937e-01</leafValues></_></weakClassifiers></stage17>
</opencv_storage>
