<?xml version="1.0"?>
<opencv_storage>
<stage11>
  <maxWeakCount>17</maxWeakCount>
  <stageThreshold>-1.7491265535354614e+00</stageThreshold>
  <weakClassifiers>
    <_>
      <internalNodes>
        0 -1 336523 -6.6815919126383960e-05</internalNodes>
      <leafValues>
        1.2326656281948090e-01 -7.1713149547576904e-01</leafValues></_>
    <_>
      <internalNodes>
        0 -1 178297 2.6770590338855982e-03</internalNodes>
      <leafValues>
        -8.0158174037933350e-01 1.4152957499027252e-01</leafValues></_>
    <_>
      <internalNodes>
        0 -1 84748 6.6068917512893677e-02</internalNodes>
      <leafValues>
        1.7035730183124542e-01 -7.3508292436599731e-01</leafValues></_>
    <_>
      <internalNodes>
        0 -1 126522 -1.6714587109163404e-03</internalNodes>
      <leafValues>
        -6.8452614545822144e-01 2.0144955813884735e-01</leafValues></_>
    <_>
      <internalNodes>
        0 -1 293745 -1.2077681720256805e-02</internalNodes>
      <leafValues>
        1.6199411451816559e-01 -6.6640561819076538e-01</leafValues></_>
    <_>
      <internalNodes>
        0 -1 333146 -1.2166406959295273e-02</internalNodes>
      <leafValues>
        3.4754201769828796e-01 -3.6869174242019653e-01</leafValues></_>
    <_>
      <internalNodes>
        0 -1 350601 5.0034571904689074e-04</internalNodes>
      <leafValues>
        2.0705258846282959e-01 -7.1509665250778198e-01</leafValues></_>
    <_>
      <internalNodes>
        0 -1 362889 -9.6427992684766650e-04</internalNodes>
      <leafValues>
        5.5059248208999634e-01 -2.8838661313056946e-01</leafValues></_>
    <_>
      <internalNodes>
        0 -1 337630 -9.2321669217199087e-04</internalNodes>
      <leafValues>
        -7.2630709409713745e-01 1.8981058895587921e-01</leafValues></_>
    <_>
      <internalNodes>
        0 -1 290317 -7.4385032057762146e-03</internalNodes>
      <leafValues>
        4.8324197530746460e-01 -2.7451893687248230e-01</leafValues></_>
    <_>
      <internalNodes>
        0 -1 119647 3.7910912185907364e-02</internalNodes>
      <leafValues>
        -4.8611941933631897e-01 2.9524368047714233e-01</leafValues></_>
    <_>
      <internalNodes>
        0 -1 307773 1.5376565046608448e-02</internalNodes>
      <leafValues>
        -5.6592875719070435e-01 2.4625453352928162e-01</leafValues></_>
    <_>
      <internalNodes>
        0 -1 442409 -1.7519388347864151e-03</internalNodes>
      <leafValues>
        7.4128216505050659e-01 -2.0839399099349976e-01</leafValues></_>
    <_>
      <internalNodes>
        0 -1 309752 -6.4054513350129128e-03</internalNodes>
      <leafValues>
        6.6774404048919678e-01 -1.9424355030059814e-01</leafValues></_>
    <_>
      <internalNodes>
        0 -1 237138 -2.0542139187455177e-02</internalNodes>
      <leafValues>
        6.8014162778854370e-01 -1.3400608301162720e-01</leafValues></_>
    <_>
      <internalNodes>
        0 -1 312033 1.1468404409242794e-05</internalNodes>
      <leafValues>
        -2.9925870895385742e-01 4.5050987601280212e-01</leafValues></_>
    <_>
      <internalNodes>
        0 -1 361492 1.0487989056855440e-03</internalNodes>
      <leafValues>
        1.7555236816406250e-01 -7.8008282184600830e-01</leafValues></_></weakClassifiers></stage11>
</opencv_storage>
