<?xml version="1.0"?>
<opencv_storage>
<stage14>
  <maxWeakCount>13</maxWeakCount>
  <stageThreshold>-1.1277525424957275e+00</stageThreshold>
  <weakClassifiers>
    <_>
      <internalNodes>
        0 -1 170265 -1.3197945430874825e-02</internalNodes>
      <leafValues>
        1.1517076939344406e-01 -6.3770794868469238e-01</leafValues></_>
    <_>
      <internalNodes>
        0 -1 323949 1.1401573829061817e-05</internalNodes>
      <leafValues>
        -3.7381544709205627e-01 3.3028852939605713e-01</leafValues></_>
    <_>
      <internalNodes>
        0 -1 310522 -1.4799524797126651e-04</internalNodes>
      <leafValues>
        2.6119443774223328e-01 -5.3204143047332764e-01</leafValues></_>
    <_>
      <internalNodes>
        0 -1 325572 -1.1417982168495655e-03</internalNodes>
      <leafValues>
        -9.0316200256347656e-01 1.4149242639541626e-01</leafValues></_>
    <_>
      <internalNodes>
        0 -1 392762 1.6474793665111065e-03</internalNodes>
      <leafValues>
        -2.0369103550910950e-01 6.4304953813552856e-01</leafValues></_>
    <_>
      <internalNodes>
        0 -1 312033 1.1468404409242794e-05</internalNodes>
      <leafValues>
        -2.9111951589584351e-01 4.1346836090087891e-01</leafValues></_>
    <_>
      <internalNodes>
        0 -1 110517 4.3388504534959793e-02</internalNodes>
      <leafValues>
        -3.0730113387107849e-01 4.4595804810523987e-01</leafValues></_>
    <_>
      <internalNodes>
        0 -1 244432 2.6618223637342453e-02</internalNodes>
      <leafValues>
        -2.4776737391948700e-01 5.5523771047592163e-01</leafValues></_>
    <_>
      <internalNodes>
        0 -1 348976 4.0502983029000461e-04</internalNodes>
      <leafValues>
        2.2494561970233917e-01 -7.4048781394958496e-01</leafValues></_>
    <_>
      <internalNodes>
        0 -1 393405 1.2302109971642494e-03</internalNodes>
      <leafValues>
        -2.9260012507438660e-01 4.8554000258445740e-01</leafValues></_>
    <_>
      <internalNodes>
        0 -1 424938 1.9405119121074677e-02</internalNodes>
      <leafValues>
        1.4837382733821869e-01 -9.0027099847793579e-01</leafValues></_>
    <_>
      <internalNodes>
        0 -1 360228 -2.3626314941793680e-05</internalNodes>
      <leafValues>
        3.4202244877815247e-01 -3.4782478213310242e-01</leafValues></_>
    <_>
      <internalNodes>
        0 -1 217295 2.3055778001435101e-04</internalNodes>
      <leafValues>
        -6.0090899467468262e-01 2.0385926961898804e-01</leafValues></_></weakClassifiers></stage14>
</opencv_storage>
